digraph Tree {
node [shape=box] ;
0 [label="X[0] <= 6.5\ngini = 0.2733\nsamples = 1312471\nvalue = [1737061, 339143]"] ;
1 [label="X[2] <= 4.5\ngini = 0.2569\nsamples = 762114\nvalue = [1023449, 182574]"] ;
0 -> 1 [labeldistance=2.5, labelangle=45, headlabel="True"] ;
2 [label="X[2] <= 1.5\ngini = 0.2495\nsamples = 710565\nvalue = [960163, 164282]"] ;
1 -> 2 ;
3 [label="X[0] <= 3.5\ngini = 0.4132\nsamples = 4822\nvalue = [5393, 2221]"] ;
2 -> 3 ;
4 [label="X[2] <= 0.5\ngini = 0.414\nsamples = 4808\nvalue = [5370, 2221]"] ;
3 -> 4 ;
5 [label="X[1] <= 6.5\ngini = 0.4623\nsamples = 314\nvalue = [177, 311]"] ;
4 -> 5 ;
6 [label="gini = 0.0\nsamples = 2\nvalue = [0, 4]"] ;
5 -> 6 ;
7 [label="X[1] <= 8.0\ngini = 0.4639\nsamples = 312\nvalue = [177, 307]"] ;
5 -> 7 ;
8 [label="gini = 0.0\nsamples = 3\nvalue = [3, 0]"] ;
7 -> 8 ;
9 [label="gini = 0.4618\nsamples = 309\nvalue = [174, 307]"] ;
7 -> 9 ;
10 [label="X[1] <= 6.5\ngini = 0.3932\nsamples = 4494\nvalue = [5193, 1910]"] ;
4 -> 10 ;
11 [label="gini = 0.2757\nsamples = 70\nvalue = [91, 18]"] ;
10 -> 11 ;
12 [label="X[1] <= 8.0\ngini = 0.3947\nsamples = 4424\nvalue = [5102, 1892]"] ;
10 -> 12 ;
13 [label="gini = 0.4612\nsamples = 74\nvalue = [78, 44]"] ;
12 -> 13 ;
14 [label="gini = 0.3932\nsamples = 4350\nvalue = [5024, 1848]"] ;
12 -> 14 ;
15 [label="gini = 0.0\nsamples = 14\nvalue = [23, 0]"] ;
3 -> 15 ;
16 [label="X[1] <= 7.5\ngini = 0.2481\nsamples = 705743\nvalue = [954770, 162061]"] ;
2 -> 16 ;
17 [label="X[0] <= 2.0\ngini = 0.3241\nsamples = 39353\nvalue = [49438, 12626]"] ;
16 -> 17 ;
18 [label="X[2] <= 3.5\ngini = 0.0909\nsamples = 281\nvalue = [419, 21]"] ;
17 -> 18 ;
19 [label="gini = 0.0\nsamples = 4\nvalue = [5, 0]"] ;
18 -> 19 ;
20 [label="gini = 0.0919\nsamples = 277\nvalue = [414, 21]"] ;
18 -> 20 ;
21 [label="X[2] <= 2.5\ngini = 0.3254\nsamples = 39072\nvalue = [49019, 12605]"] ;
17 -> 21 ;
22 [label="X[0] <= 3.5\ngini = 0.1796\nsamples = 8386\nvalue = [11951, 1324]"] ;
21 -> 22 ;
23 [label="X[1] <= 6.5\ngini = 0.18\nsamples = 8353\nvalue = [11904, 1323]"] ;
22 -> 23 ;
24 [label="X[1] <= 2.0\ngini = 0.3837\nsamples = 651\nvalue = [750, 262]"] ;
23 -> 24 ;
25 [label="gini = 0.1107\nsamples = 37\nvalue = [48, 3]"] ;
24 -> 25 ;
26 [label="X[1] <= 5.0\ngini = 0.3937\nsamples = 614\nvalue = [702, 259]"] ;
24 -> 26 ;
27 [label="gini = 0.0\nsamples = 6\nvalue = [0, 16]"] ;
26 -> 27 ;
28 [label="gini = 0.382\nsamples = 608\nvalue = [702, 243]"] ;
26 -> 28 ;
29 [label="gini = 0.1586\nsamples = 7702\nvalue = [11154, 1061]"] ;
23 -> 29 ;
30 [label="gini = 0.0408\nsamples = 33\nvalue = [47, 1]"] ;
22 -> 30 ;
31 [label="X[2] <= 3.5\ngini = 0.3578\nsamples = 30686\nvalue = [37068, 11281]"] ;
21 -> 31 ;
32 [label="X[1] <= 2.0\ngini = 0.4319\nsamples = 10272\nvalue = [11133, 5132]"] ;
31 -> 32 ;
33 [label="X[0] <= 3.5\ngini = 0.0633\nsamples = 230\nvalue = [355, 12]"] ;
32 -> 33 ;
34 [label="gini = 0.1734\nsamples = 46\nvalue = [66, 7]"] ;
33 -> 34 ;
35 [label="gini = 0.0334\nsamples = 184\nvalue = [289, 5]"] ;
33 -> 35 ;
36 [label="X[1] <= 3.5\ngini = 0.4367\nsamples = 10042\nvalue = [10778, 5120]"] ;
32 -> 36 ;
37 [label="gini = 0.4999\nsamples = 42\nvalue = [34, 35]"] ;
36 -> 37 ;
38 [label="X[1] <= 6.5\ngini = 0.4361\nsamples = 10000\nvalue = [10744, 5085]"] ;
36 -> 38 ;
39 [label="X[1] <= 5.0\ngini = 0.3863\nsamples = 645\nvalue = [737, 261]"] ;
38 -> 39 ;
40 [label="gini = 0.3299\nsamples = 15\nvalue = [19, 5]"] ;
39 -> 40 ;
41 [label="gini = 0.3875\nsamples = 630\nvalue = [718, 256]"] ;
39 -> 41 ;
42 [label="gini = 0.4389\nsamples = 9355\nvalue = [10007, 4824]"] ;
38 -> 42 ;
43 [label="X[1] <= 6.5\ngini = 0.3098\nsamples = 20414\nvalue = [25935, 6149]"] ;
31 -> 43 ;
44 [label="X[1] <= 2.0\ngini = 0.4364\nsamples = 403\nvalue = [447, 212]"] ;
43 -> 44 ;
45 [label="X[1] <= 0.5\ngini = 0.1826\nsamples = 260\nvalue = [380, 43]"] ;
44 -> 45 ;
46 [label="gini = 0.0\nsamples = 178\nvalue = [291, 0]"] ;
45 -> 46 ;
47 [label="X[0] <= 3.5\ngini = 0.4393\nsamples = 82\nvalue = [89, 43]"] ;
45 -> 47 ;
48 [label="gini = 0.0\nsamples = 15\nvalue = [0, 26]"] ;
47 -> 48 ;
49 [label="gini = 0.2693\nsamples = 67\nvalue = [89, 17]"] ;
47 -> 49 ;
50 [label="X[1] <= 3.5\ngini = 0.4066\nsamples = 143\nvalue = [67, 169]"] ;
44 -> 50 ;
51 [label="gini = 0.4875\nsamples = 14\nvalue = [8, 11]"] ;
50 -> 51 ;
52 [label="X[1] <= 5.0\ngini = 0.3959\nsamples = 129\nvalue = [59, 158]"] ;
50 -> 52 ;
53 [label="gini = 0.0\nsamples = 1\nvalue = [0, 1]"] ;
52 -> 53 ;
54 [label="gini = 0.3971\nsamples = 128\nvalue = [59, 157]"] ;
52 -> 54 ;
55 [label="gini = 0.3065\nsamples = 20011\nvalue = [25488, 5937]"] ;
43 -> 55 ;
56 [label="X[1] <= 8.5\ngini = 0.2432\nsamples = 666390\nvalue = [905332, 149435]"] ;
16 -> 56 ;
57 [label="X[2] <= 2.5\ngini = 0.1628\nsamples = 2357\nvalue = [3403, 334]"] ;
56 -> 57 ;
58 [label="gini = 0.4286\nsamples = 28\nvalue = [14, 31]"] ;
57 -> 58 ;
59 [label="X[2] <= 3.5\ngini = 0.1507\nsamples = 2329\nvalue = [3389, 303]"] ;
57 -> 59 ;
60 [label="gini = 0.1448\nsamples = 2310\nvalue = [3377, 288]"] ;
59 -> 60 ;
61 [label="gini = 0.4938\nsamples = 19\nvalue = [12, 15]"] ;
59 -> 61 ;
62 [label="X[2] <= 3.5\ngini = 0.2435\nsamples = 664033\nvalue = [901929, 149101]"] ;
56 -> 62 ;
63 [label="X[1] <= 10.5\ngini = 0.2575\nsamples = 356539\nvalue = [478959, 85726]"] ;
62 -> 63 ;
64 [label="X[1] <= 9.5\ngini = 0.2575\nsamples = 356486\nvalue = [478917, 85688]"] ;
63 -> 64 ;
65 [label="X[2] <= 2.5\ngini = 0.2575\nsamples = 356445\nvalue = [478864, 85672]"] ;
64 -> 65 ;
66 [label="gini = 0.2703\nsamples = 77265\nvalue = [103005, 19777]"] ;
65 -> 66 ;
67 [label="gini = 0.2538\nsamples = 279180\nvalue = [375859, 65895]"] ;
65 -> 67 ;
68 [label="X[2] <= 2.5\ngini = 0.3562\nsamples = 41\nvalue = [53, 16]"] ;
64 -> 68 ;
69 [label="gini = 0.4959\nsamples = 4\nvalue = [5, 6]"] ;
68 -> 69 ;
70 [label="gini = 0.2854\nsamples = 37\nvalue = [48, 10]"] ;
68 -> 70 ;
71 [label="X[1] <= 11.5\ngini = 0.4988\nsamples = 53\nvalue = [42, 38]"] ;
63 -> 71 ;
72 [label="X[2] <= 2.5\ngini = 0.4965\nsamples = 47\nvalue = [39, 33]"] ;
71 -> 72 ;
73 [label="gini = 0.0\nsamples = 12\nvalue = [0, 13]"] ;
72 -> 73 ;
74 [label="gini = 0.4481\nsamples = 35\nvalue = [39, 20]"] ;
72 -> 74 ;
75 [label="X[2] <= 2.5\ngini = 0.4688\nsamples = 6\nvalue = [3, 5]"] ;
71 -> 75 ;
76 [label="gini = 0.0\nsamples = 4\nvalue = [0, 5]"] ;
75 -> 76 ;
77 [label="gini = 0.0\nsamples = 2\nvalue = [3, 0]"] ;
75 -> 77 ;
78 [label="X[1] <= 11.5\ngini = 0.2267\nsamples = 307494\nvalue = [422970, 63375]"] ;
62 -> 78 ;
79 [label="X[1] <= 9.5\ngini = 0.2266\nsamples = 307475\nvalue = [422952, 63366]"] ;
78 -> 79 ;
80 [label="gini = 0.2267\nsamples = 307423\nvalue = [422880, 63362]"] ;
79 -> 80 ;
81 [label="X[0] <= 4.5\ngini = 0.0997\nsamples = 52\nvalue = [72, 4]"] ;
79 -> 81 ;
82 [label="gini = 0.0\nsamples = 32\nvalue = [48, 0]"] ;
81 -> 82 ;
83 [label="gini = 0.2449\nsamples = 20\nvalue = [24, 4]"] ;
81 -> 83 ;
84 [label="gini = 0.4444\nsamples = 19\nvalue = [18, 9]"] ;
78 -> 84 ;
85 [label="X[1] <= 6.5\ngini = 0.3479\nsamples = 51549\nvalue = [63286, 18292]"] ;
1 -> 85 ;
86 [label="X[0] <= 3.5\ngini = 0.4167\nsamples = 62\nvalue = [29, 69]"] ;
85 -> 86 ;
87 [label="X[1] <= 5.0\ngini = 0.375\nsamples = 56\nvalue = [23, 69]"] ;
86 -> 87 ;
88 [label="gini = 0.0\nsamples = 13\nvalue = [0, 23]"] ;
87 -> 88 ;
89 [label="X[2] <= 5.5\ngini = 0.4444\nsamples = 43\nvalue = [23, 46]"] ;
87 -> 89 ;
90 [label="gini = 0.0\nsamples = 13\nvalue = [23, 0]"] ;
89 -> 90 ;
91 [label="gini = 0.0\nsamples = 30\nvalue = [0, 46]"] ;
89 -> 91 ;
92 [label="gini = 0.0\nsamples = 6\nvalue = [6, 0]"] ;
86 -> 92 ;
93 [label="X[2] <= 5.5\ngini = 0.3473\nsamples = 51487\nvalue = [63257, 18223]"] ;
85 -> 93 ;
94 [label="X[0] <= 3.5\ngini = 0.3479\nsamples = 32708\nvalue = [40111, 11591]"] ;
93 -> 94 ;
95 [label="X[1] <= 8.0\ngini = 0.3479\nsamples = 32702\nvalue = [40103, 11591]"] ;
94 -> 95 ;
96 [label="gini = 0.2358\nsamples = 3197\nvalue = [4357, 689]"] ;
95 -> 96 ;
97 [label="gini = 0.3582\nsamples = 29505\nvalue = [35746, 10902]"] ;
95 -> 97 ;
98 [label="gini = 0.0\nsamples = 6\nvalue = [8, 0]"] ;
94 -> 98 ;
99 [label="X[1] <= 8.5\ngini = 0.3462\nsamples = 18779\nvalue = [23146, 6632]"] ;
93 -> 99 ;
100 [label="X[0] <= 4.5\ngini = 0.4153\nsamples = 638\nvalue = [722, 301]"] ;
99 -> 100 ;
101 [label="gini = 0.4095\nsamples = 632\nvalue = [722, 291]"] ;
100 -> 101 ;
102 [label="gini = 0.0\nsamples = 6\nvalue = [0, 10]"] ;
100 -> 102 ;
103 [label="gini = 0.3434\nsamples = 18141\nvalue = [22424, 6331]"] ;
99 -> 103 ;
104 [label="X[2] <= 3.5\ngini = 0.2951\nsamples = 550357\nvalue = [713612, 156569]"] ;
0 -> 104 [labeldistance=2.5, labelangle=-45, headlabel="False"] ;
105 [label="X[0] <= 8.5\ngini = 0.3268\nsamples = 252904\nvalue = [318050, 82386]"] ;
104 -> 105 ;
106 [label="X[1] <= 8.5\ngini = 0.381\nsamples = 43762\nvalue = [51523, 17736]"] ;
105 -> 106 ;
107 [label="X[1] <= 7.5\ngini = 0.2203\nsamples = 5007\nvalue = [6962, 1004]"] ;
106 -> 107 ;
108 [label="X[1] <= 6.5\ngini = 0.3653\nsamples = 1518\nvalue = [1819, 576]"] ;
107 -> 108 ;
109 [label="X[2] <= 2.5\ngini = 0.1755\nsamples = 311\nvalue = [455, 49]"] ;
108 -> 109 ;
110 [label="gini = 0.4998\nsamples = 33\nvalue = [24, 25]"] ;
109 -> 110 ;
111 [label="X[0] <= 7.5\ngini = 0.0999\nsamples = 278\nvalue = [431, 24]"] ;
109 -> 111 ;
112 [label="X[1] <= 5.0\ngini = 0.073\nsamples = 273\nvalue = [431, 17]"] ;
111 -> 112 ;
113 [label="gini = 0.0\nsamples = 2\nvalue = [0, 3]"] ;
112 -> 113 ;
114 [label="gini = 0.0609\nsamples = 271\nvalue = [431, 14]"] ;
112 -> 114 ;
115 [label="gini = 0.0\nsamples = 5\nvalue = [0, 7]"] ;
111 -> 115 ;
116 [label="X[2] <= 1.5\ngini = 0.402\nsamples = 1207\nvalue = [1364, 527]"] ;
108 -> 116 ;
117 [label="gini = 0.0\nsamples = 19\nvalue = [0, 25]"] ;
116 -> 117 ;
118 [label="X[2] <= 2.5\ngini = 0.3933\nsamples = 1188\nvalue = [1364, 502]"] ;
116 -> 118 ;
119 [label="gini = 0.4289\nsamples = 337\nvalue = [367, 166]"] ;
118 -> 119 ;
120 [label="gini = 0.3771\nsamples = 851\nvalue = [997, 336]"] ;
118 -> 120 ;
121 [label="X[2] <= 1.5\ngini = 0.1418\nsamples = 3489\nvalue = [5143, 428]"] ;
107 -> 121 ;
122 [label="gini = 0.0\nsamples = 3\nvalue = [0, 3]"] ;
121 -> 122 ;
123 [label="X[2] <= 2.5\ngini = 0.141\nsamples = 3486\nvalue = [5143, 425]"] ;
121 -> 123 ;
124 [label="gini = 0.209\nsamples = 246\nvalue = [342, 46]"] ;
123 -> 124 ;
125 [label="gini = 0.1356\nsamples = 3240\nvalue = [4801, 379]"] ;
123 -> 125 ;
126 [label="X[2] <= 2.5\ngini = 0.3969\nsamples = 38755\nvalue = [44561, 16732]"] ;
106 -> 126 ;
127 [label="X[2] <= 0.5\ngini = 0.4494\nsamples = 7215\nvalue = [7522, 3891]"] ;
126 -> 127 ;
128 [label="gini = 0.2809\nsamples = 213\nvalue = [295, 60]"] ;
127 -> 128 ;
129 [label="X[2] <= 1.5\ngini = 0.4528\nsamples = 7002\nvalue = [7227, 3831]"] ;
127 -> 129 ;
130 [label="gini = 0.4523\nsamples = 734\nvalue = [750, 396]"] ;
129 -> 130 ;
131 [label="gini = 0.4529\nsamples = 6268\nvalue = [6477, 3435]"] ;
129 -> 131 ;
132 [label="gini = 0.3823\nsamples = 31540\nvalue = [37039, 12841]"] ;
126 -> 132 ;
133 [label="X[2] <= 1.5\ngini = 0.3142\nsamples = 209142\nvalue = [266527, 64650]"] ;
105 -> 133 ;
134 [label="X[0] <= 16.0\ngini = 0.4531\nsamples = 2269\nvalue = [2342, 1244]"] ;
133 -> 134 ;
135 [label="X[1] <= 9.5\ngini = 0.4729\nsamples = 1987\nvalue = [1928, 1200]"] ;
134 -> 135 ;
136 [label="X[0] <= 13.0\ngini = 0.473\nsamples = 1985\nvalue = [1926, 1200]"] ;
135 -> 136 ;
137 [label="X[2] <= 0.5\ngini = 0.4721\nsamples = 1977\nvalue = [1926, 1190]"] ;
136 -> 137 ;
138 [label="gini = 0.3202\nsamples = 676\nvalue = [875, 219]"] ;
137 -> 138 ;
139 [label="gini = 0.4992\nsamples = 1301\nvalue = [1051, 971]"] ;
137 -> 139 ;
140 [label="gini = 0.0\nsamples = 8\nvalue = [0, 10]"] ;
136 -> 140 ;
141 [label="gini = 0.0\nsamples = 2\nvalue = [2, 0]"] ;
135 -> 141 ;
142 [label="X[2] <= 0.5\ngini = 0.1737\nsamples = 282\nvalue = [414, 44]"] ;
134 -> 142 ;
143 [label="gini = 0.0\nsamples = 10\nvalue = [0, 15]"] ;
142 -> 143 ;
144 [label="gini = 0.1224\nsamples = 272\nvalue = [414, 29]"] ;
142 -> 144 ;
145 [label="X[0] <= 16.5\ngini = 0.3122\nsamples = 206873\nvalue = [264185, 63406]"] ;
133 -> 145 ;
146 [label="X[1] <= 6.5\ngini = 0.3083\nsamples = 200060\nvalue = [256463, 60306]"] ;
145 -> 146 ;
147 [label="gini = 0.1263\nsamples = 278\nvalue = [413, 30]"] ;
146 -> 147 ;
148 [label="X[2] <= 2.5\ngini = 0.3085\nsamples = 199782\nvalue = [256050, 60276]"] ;
146 -> 148 ;
149 [label="X[0] <= 11.5\ngini = 0.3034\nsamples = 69318\nvalue = [89459, 20510]"] ;
148 -> 149 ;
150 [label="X[1] <= 9.5\ngini = 0.3018\nsamples = 68729\nvalue = [88858, 20201]"] ;
149 -> 150 ;
151 [label="gini = 0.3019\nsamples = 68707\nvalue = [88824, 20201]"] ;
150 -> 151 ;
152 [label="gini = 0.0\nsamples = 22\nvalue = [34, 0]"] ;
150 -> 152 ;
153 [label="X[1] <= 10.0\ngini = 0.4485\nsamples = 589\nvalue = [601, 309]"] ;
149 -> 153 ;
154 [label="X[0] <= 14.0\ngini = 0.4432\nsamples = 572\nvalue = [593, 294]"] ;
153 -> 154 ;
155 [label="gini = 0.0\nsamples = 8\nvalue = [0, 13]"] ;
154 -> 155 ;
156 [label="gini = 0.4363\nsamples = 564\nvalue = [593, 281]"] ;
154 -> 156 ;
157 [label="X[1] <= 11.5\ngini = 0.4537\nsamples = 17\nvalue = [8, 15]"] ;
153 -> 157 ;
158 [label="gini = 0.0\nsamples = 10\nvalue = [0, 15]"] ;
157 -> 158 ;
159 [label="gini = 0.0\nsamples = 7\nvalue = [8, 0]"] ;
157 -> 159 ;
160 [label="X[0] <= 13.5\ngini = 0.3111\nsamples = 130464\nvalue = [166591, 39766]"] ;
148 -> 160 ;
161 [label="X[0] <= 11.5\ngini = 0.3189\nsamples = 124130\nvalue = [157228, 39075]"] ;
160 -> 161 ;
162 [label="X[1] <= 9.5\ngini = 0.3184\nsamples = 124068\nvalue = [157228, 38975]"] ;
161 -> 162 ;
163 [label="gini = 0.3184\nsamples = 124002\nvalue = [157149, 38959]"] ;
162 -> 163 ;
164 [label="gini = 0.2801\nsamples = 66\nvalue = [79, 16]"] ;
162 -> 164 ;
165 [label="gini = 0.0\nsamples = 62\nvalue = [0, 100]"] ;
161 -> 165 ;
166 [label="X[1] <= 8.0\ngini = 0.128\nsamples = 6334\nvalue = [9363, 691]"] ;
160 -> 166 ;
167 [label="gini = 0.0\nsamples = 7\nvalue = [0, 9]"] ;
166 -> 167 ;
168 [label="X[1] <= 11.5\ngini = 0.1266\nsamples = 6327\nvalue = [9363, 682]"] ;
166 -> 168 ;
169 [label="X[0] <= 15.5\ngini = 0.1273\nsamples = 6176\nvalue = [9138, 670]"] ;
168 -> 169 ;
170 [label="X[0] <= 14.5\ngini = 0.1291\nsamples = 6079\nvalue = [8990, 670]"] ;
169 -> 170 ;
171 [label="gini = 0.1504\nsamples = 154\nvalue = [213, 19]"] ;
170 -> 171 ;
172 [label="gini = 0.1286\nsamples = 5925\nvalue = [8777, 651]"] ;
170 -> 172 ;
173 [label="gini = 0.0\nsamples = 97\nvalue = [148, 0]"] ;
169 -> 173 ;
174 [label="gini = 0.0961\nsamples = 151\nvalue = [225, 12]"] ;
168 -> 174 ;
175 [label="X[0] <= 18.5\ngini = 0.4088\nsamples = 6813\nvalue = [7722, 3100]"] ;
145 -> 175 ;
176 [label="X[2] <= 2.5\ngini = 0.4145\nsamples = 6423\nvalue = [7206, 2989]"] ;
175 -> 176 ;
177 [label="X[1] <= 8.0\ngini = 0.4226\nsamples = 1237\nvalue = [1397, 608]"] ;
176 -> 177 ;
178 [label="gini = 0.4212\nsamples = 1234\nvalue = [1397, 603]"] ;
177 -> 178 ;
179 [label="gini = 0.0\nsamples = 3\nvalue = [0, 5]"] ;
177 -> 179 ;
180 [label="X[0] <= 17.5\ngini = 0.4124\nsamples = 5186\nvalue = [5809, 2381]"] ;
176 -> 180 ;
181 [label="gini = 0.412\nsamples = 5182\nvalue = [5809, 2375]"] ;
180 -> 181 ;
182 [label="gini = 0.0\nsamples = 4\nvalue = [0, 6]"] ;
180 -> 182 ;
183 [label="X[1] <= 8.0\ngini = 0.2914\nsamples = 390\nvalue = [516, 111]"] ;
175 -> 183 ;
184 [label="gini = 0.0\nsamples = 7\nvalue = [0, 10]"] ;
183 -> 184 ;
185 [label="X[2] <= 2.5\ngini = 0.2738\nsamples = 383\nvalue = [516, 101]"] ;
183 -> 185 ;
186 [label="X[0] <= 20.5\ngini = 0.1866\nsamples = 138\nvalue = [215, 25]"] ;
185 -> 186 ;
187 [label="X[0] <= 19.5\ngini = 0.0528\nsamples = 128\nvalue = [215, 6]"] ;
186 -> 187 ;
188 [label="gini = 0.0\nsamples = 6\nvalue = [7, 0]"] ;
187 -> 188 ;
189 [label="gini = 0.0545\nsamples = 122\nvalue = [208, 6]"] ;
187 -> 189 ;
190 [label="gini = 0.0\nsamples = 10\nvalue = [0, 19]"] ;
186 -> 190 ;
191 [label="gini = 0.3219\nsamples = 245\nvalue = [301, 76]"] ;
185 -> 191 ;
192 [label="X[2] <= 4.5\ngini = 0.266\nsamples = 297453\nvalue = [395562, 74183]"] ;
104 -> 192 ;
193 [label="X[1] <= 8.5\ngini = 0.2549\nsamples = 275282\nvalue = [369557, 65169]"] ;
192 -> 193 ;
194 [label="X[0] <= 11.0\ngini = 0.3551\nsamples = 8976\nvalue = [10895, 3269]"] ;
193 -> 194 ;
195 [label="X[1] <= 7.5\ngini = 0.2731\nsamples = 2587\nvalue = [3410, 665]"] ;
194 -> 195 ;
196 [label="X[1] <= 5.5\ngini = 0.2593\nsamples = 2548\nvalue = [3402, 615]"] ;
195 -> 196 ;
197 [label="gini = 0.0\nsamples = 23\nvalue = [0, 39]"] ;
196 -> 197 ;
198 [label="X[1] <= 6.5\ngini = 0.2477\nsamples = 2525\nvalue = [3402, 576]"] ;
196 -> 198 ;
199 [label="gini = 0.455\nsamples = 50\nvalue = [52, 28]"] ;
198 -> 199 ;
200 [label="gini = 0.2416\nsamples = 2475\nvalue = [3350, 548]"] ;
198 -> 200 ;
201 [label="gini = 0.2378\nsamples = 39\nvalue = [8, 50]"] ;
195 -> 201 ;
202 [label="X[1] <= 6.5\ngini = 0.383\nsamples = 6389\nvalue = [7485, 2604]"] ;
194 -> 202 ;
203 [label="gini = 0.0\nsamples = 3\nvalue = [0, 6]"] ;
202 -> 203 ;
204 [label="X[0] <= 16.0\ngini = 0.3825\nsamples = 6386\nvalue = [7485, 2598]"] ;
202 -> 204 ;
205 [label="gini = 0.0\nsamples = 3\nvalue = [0, 4]"] ;
204 -> 205 ;
206 [label="gini = 0.3823\nsamples = 6383\nvalue = [7485, 2594]"] ;
204 -> 206 ;
207 [label="X[1] <= 11.5\ngini = 0.251\nsamples = 266306\nvalue = [358662, 61900]"] ;
193 -> 207 ;
208 [label="X[0] <= 8.0\ngini = 0.251\nsamples = 266008\nvalue = [358254, 61818]"] ;
207 -> 208 ;
209 [label="gini = 0.2993\nsamples = 25411\nvalue = [32744, 7346]"] ;
208 -> 209 ;
210 [label="X[0] <= 20.5\ngini = 0.2456\nsamples = 240597\nvalue = [325510, 54472]"] ;
208 -> 210 ;
211 [label="X[0] <= 17.5\ngini = 0.246\nsamples = 240146\nvalue = [324800, 54472]"] ;
210 -> 211 ;
212 [label="X[0] <= 11.5\ngini = 0.246\nsamples = 240139\nvalue = [324800, 54463]"] ;
211 -> 212 ;
213 [label="X[1] <= 9.5\ngini = 0.2461\nsamples = 238619\nvalue = [322729, 54167]"] ;
212 -> 213 ;
214 [label="gini = 0.2461\nsamples = 238585\nvalue = [322680, 54159]"] ;
213 -> 214 ;
215 [label="gini = 0.2413\nsamples = 34\nvalue = [49, 8]"] ;
213 -> 215 ;
216 [label="X[0] <= 12.5\ngini = 0.2188\nsamples = 1520\nvalue = [2071, 296]"] ;
212 -> 216 ;
217 [label="gini = 0.0\nsamples = 87\nvalue = [137, 0]"] ;
216 -> 217 ;
218 [label="X[1] <= 10.0\ngini = 0.2302\nsamples = 1433\nvalue = [1934, 296]"] ;
216 -> 218 ;
219 [label="X[0] <= 14.0\ngini = 0.2408\nsamples = 1321\nvalue = [1769, 288]"] ;
218 -> 219 ;
220 [label="gini = 0.4291\nsamples = 51\nvalue = [53, 24]"] ;
219 -> 220 ;
221 [label="gini = 0.2311\nsamples = 1270\nvalue = [1716, 264]"] ;
219 -> 221 ;
222 [label="gini = 0.0882\nsamples = 112\nvalue = [165, 8]"] ;
218 -> 222 ;
223 [label="gini = 0.0\nsamples = 7\nvalue = [0, 9]"] ;
211 -> 223 ;
224 [label="gini = 0.0\nsamples = 451\nvalue = [710, 0]"] ;
210 -> 224 ;
225 [label="gini = 0.2787\nsamples = 298\nvalue = [408, 82]"] ;
207 -> 225 ;
226 [label="X[1] <= 7.5\ngini = 0.3823\nsamples = 22171\nvalue = [26005, 9014]"] ;
192 -> 226 ;
227 [label="X[0] <= 12.0\ngini = 0.2425\nsamples = 2138\nvalue = [2859, 470]"] ;
226 -> 227 ;
228 [label="X[1] <= 6.5\ngini = 0.1207\nsamples = 640\nvalue = [914, 63]"] ;
227 -> 228 ;
229 [label="gini = 0.0\nsamples = 4\nvalue = [0, 5]"] ;
228 -> 229 ;
230 [label="X[2] <= 5.5\ngini = 0.1122\nsamples = 636\nvalue = [914, 58]"] ;
228 -> 230 ;
231 [label="gini = 0.1696\nsamples = 226\nvalue = [310, 32]"] ;
230 -> 231 ;
232 [label="gini = 0.0791\nsamples = 410\nvalue = [604, 26]"] ;
230 -> 232 ;
233 [label="X[2] <= 5.5\ngini = 0.2862\nsamples = 1498\nvalue = [1945, 407]"] ;
227 -> 233 ;
234 [label="gini = 0.1953\nsamples = 1175\nvalue = [1624, 200]"] ;
233 -> 234 ;
235 [label="gini = 0.4767\nsamples = 323\nvalue = [321, 207]"] ;
233 -> 235 ;
236 [label="X[1] <= 8.5\ngini = 0.3938\nsamples = 20033\nvalue = [23146, 8544]"] ;
226 -> 236 ;
237 [label="gini = 0.0\nsamples = 9\nvalue = [0, 16]"] ;
236 -> 237 ;
238 [label="X[0] <= 8.0\ngini = 0.3935\nsamples = 20024\nvalue = [23146, 8528]"] ;
236 -> 238 ;
239 [label="X[2] <= 5.5\ngini = 0.4455\nsamples = 3214\nvalue = [3428, 1726]"] ;
238 -> 239 ;
240 [label="gini = 0.4343\nsamples = 2081\nvalue = [2289, 1071]"] ;
239 -> 240 ;
241 [label="gini = 0.4636\nsamples = 1133\nvalue = [1139, 655]"] ;
239 -> 241 ;
242 [label="X[1] <= 9.5\ngini = 0.3814\nsamples = 16810\nvalue = [19718, 6802]"] ;
238 -> 242 ;
243 [label="X[0] <= 16.5\ngini = 0.3815\nsamples = 16760\nvalue = [19661, 6787]"] ;
242 -> 243 ;
244 [label="X[2] <= 5.5\ngini = 0.3814\nsamples = 16757\nvalue = [19661, 6781]"] ;
243 -> 244 ;
245 [label="X[0] <= 13.0\ngini = 0.3765\nsamples = 10312\nvalue = [12174, 4091]"] ;
244 -> 245 ;
246 [label="gini = 0.3896\nsamples = 9725\nvalue = [11240, 4054]"] ;
245 -> 246 ;
247 [label="gini = 0.0733\nsamples = 587\nvalue = [934, 37]"] ;
245 -> 247 ;
248 [label="X[0] <= 13.0\ngini = 0.3889\nsamples = 6445\nvalue = [7487, 2690]"] ;
244 -> 248 ;
249 [label="gini = 0.3734\nsamples = 6238\nvalue = [7407, 2448]"] ;
248 -> 249 ;
250 [label="gini = 0.3734\nsamples = 207\nvalue = [80, 242]"] ;
248 -> 250 ;
251 [label="gini = 0.0\nsamples = 3\nvalue = [0, 6]"] ;
243 -> 251 ;
252 [label="X[2] <= 5.5\ngini = 0.3299\nsamples = 50\nvalue = [57, 15]"] ;
242 -> 252 ;
253 [label="X[1] <= 11.5\ngini = 0.4861\nsamples = 17\nvalue = [14, 10]"] ;
252 -> 253 ;
254 [label="gini = 0.2188\nsamples = 5\nvalue = [7, 1]"] ;
253 -> 254 ;
255 [label="gini = 0.4922\nsamples = 12\nvalue = [7, 9]"] ;
253 -> 255 ;
256 [label="X[0] <= 11.5\ngini = 0.1866\nsamples = 33\nvalue = [43, 5]"] ;
252 -> 256 ;
257 [label="gini = 0.0\nsamples = 4\nvalue = [7, 0]"] ;
256 -> 257 ;
258 [label="X[1] <= 11.5\ngini = 0.2142\nsamples = 29\nvalue = [36, 5]"] ;
256 -> 258 ;
259 [label="gini = 0.0\nsamples = 3\nvalue = [4, 0]"] ;
258 -> 259 ;
260 [label="gini = 0.2337\nsamples = 26\nvalue = [32, 5]"] ;
258 -> 260 ;
}