digraph Tree {
node [shape=box] ;
0 [label="X[2] <= 4.5\ngini = 0.2734\nsamples = 1312233\nvalue = [1736944, 339260]"] ;
1 [label="X[0] <= 6.5\ngini = 0.2678\nsamples = 1238513\nvalue = [1647260, 311999]"] ;
0 -> 1 [labeldistance=2.5, labelangle=45, headlabel="True"] ;
2 [label="X[2] <= 1.5\ngini = 0.2494\nsamples = 710917\nvalue = [959787, 164108]"] ;
1 -> 2 ;
3 [label="X[0] <= 3.5\ngini = 0.4175\nsamples = 4801\nvalue = [5237, 2211]"] ;
2 -> 3 ;
4 [label="X[1] <= 6.5\ngini = 0.418\nsamples = 4789\nvalue = [5220, 2211]"] ;
3 -> 4 ;
5 [label="X[2] <= 0.5\ngini = 0.2893\nsamples = 70\nvalue = [94, 20]"] ;
4 -> 5 ;
6 [label="gini = 0.0\nsamples = 1\nvalue = [0, 2]"] ;
5 -> 6 ;
7 [label="gini = 0.2698\nsamples = 69\nvalue = [94, 18]"] ;
5 -> 7 ;
8 [label="X[2] <= 0.5\ngini = 0.4196\nsamples = 4719\nvalue = [5126, 2191]"] ;
4 -> 8 ;
9 [label="X[1] <= 8.0\ngini = 0.486\nsamples = 307\nvalue = [199, 279]"] ;
8 -> 9 ;
10 [label="gini = 0.0\nsamples = 2\nvalue = [4, 0]"] ;
9 -> 10 ;
11 [label="gini = 0.4843\nsamples = 305\nvalue = [195, 279]"] ;
9 -> 11 ;
12 [label="X[1] <= 8.0\ngini = 0.4028\nsamples = 4412\nvalue = [4927, 1912]"] ;
8 -> 12 ;
13 [label="gini = 0.4858\nsamples = 66\nvalue = [59, 42]"] ;
12 -> 13 ;
14 [label="gini = 0.401\nsamples = 4346\nvalue = [4868, 1870]"] ;
12 -> 14 ;
15 [label="gini = 0.0\nsamples = 12\nvalue = [17, 0]"] ;
3 -> 15 ;
16 [label="X[2] <= 3.5\ngini = 0.248\nsamples = 706116\nvalue = [954550, 161897]"] ;
2 -> 16 ;
17 [label="X[1] <= 7.5\ngini = 0.2615\nsamples = 377850\nvalue = [504653, 92364]"] ;
16 -> 17 ;
18 [label="X[1] <= 2.5\ngini = 0.3378\nsamples = 18712\nvalue = [23187, 6358]"] ;
17 -> 18 ;
19 [label="X[1] <= 1.5\ngini = 0.0883\nsamples = 304\nvalue = [453, 22]"] ;
18 -> 19 ;
20 [label="X[0] <= 3.5\ngini = 0.0885\nsamples = 303\nvalue = [452, 22]"] ;
19 -> 20 ;
21 [label="X[0] <= 2.0\ngini = 0.149\nsamples = 93\nvalue = [136, 12]"] ;
20 -> 21 ;
22 [label="gini = 0.0\nsamples = 4\nvalue = [6, 0]"] ;
21 -> 22 ;
23 [label="X[2] <= 2.5\ngini = 0.1547\nsamples = 89\nvalue = [130, 12]"] ;
21 -> 23 ;
24 [label="gini = 0.0907\nsamples = 41\nvalue = [60, 3]"] ;
23 -> 24 ;
25 [label="gini = 0.2019\nsamples = 48\nvalue = [70, 9]"] ;
23 -> 25 ;
26 [label="X[2] <= 2.5\ngini = 0.0595\nsamples = 210\nvalue = [316, 10]"] ;
20 -> 26 ;
27 [label="gini = 0.0\nsamples = 27\nvalue = [37, 0]"] ;
26 -> 27 ;
28 [label="gini = 0.0668\nsamples = 183\nvalue = [279, 10]"] ;
26 -> 28 ;
29 [label="gini = 0.0\nsamples = 1\nvalue = [1, 0]"] ;
19 -> 29 ;
30 [label="X[2] <= 2.5\ngini = 0.3409\nsamples = 18408\nvalue = [22734, 6336]"] ;
18 -> 30 ;
31 [label="X[1] <= 6.5\ngini = 0.1751\nsamples = 8367\nvalue = [11928, 1281]"] ;
30 -> 31 ;
32 [label="X[1] <= 5.0\ngini = 0.3779\nsamples = 623\nvalue = [756, 256]"] ;
31 -> 32 ;
33 [label="gini = 0.0\nsamples = 7\nvalue = [0, 13]"] ;
32 -> 33 ;
34 [label="gini = 0.3682\nsamples = 616\nvalue = [756, 243]"] ;
32 -> 34 ;
35 [label="gini = 0.1539\nsamples = 7744\nvalue = [11172, 1025]"] ;
31 -> 35 ;
36 [label="X[1] <= 6.5\ngini = 0.4343\nsamples = 10041\nvalue = [10806, 5055]"] ;
30 -> 36 ;
37 [label="X[1] <= 3.5\ngini = 0.4036\nsamples = 705\nvalue = [780, 304]"] ;
36 -> 37 ;
38 [label="gini = 0.5\nsamples = 32\nvalue = [24, 24]"] ;
37 -> 38 ;
39 [label="X[1] <= 5.0\ngini = 0.3944\nsamples = 673\nvalue = [756, 280]"] ;
37 -> 39 ;
40 [label="gini = 0.2688\nsamples = 19\nvalue = [21, 4]"] ;
39 -> 40 ;
41 [label="gini = 0.3969\nsamples = 654\nvalue = [735, 276]"] ;
39 -> 41 ;
42 [label="gini = 0.4363\nsamples = 9336\nvalue = [10026, 4751]"] ;
36 -> 42 ;
43 [label="X[0] <= 5.5\ngini = 0.2572\nsamples = 359138\nvalue = [481466, 86006]"] ;
17 -> 43 ;
44 [label="X[2] <= 2.5\ngini = 0.2577\nsamples = 356809\nvalue = [478168, 85676]"] ;
43 -> 44 ;
45 [label="X[1] <= 9.5\ngini = 0.2703\nsamples = 77214\nvalue = [102290, 19648]"] ;
44 -> 45 ;
46 [label="gini = 0.2702\nsamples = 77202\nvalue = [102288, 19633]"] ;
45 -> 46 ;
47 [label="X[0] <= 4.5\ngini = 0.2076\nsamples = 12\nvalue = [2, 15]"] ;
45 -> 47 ;
48 [label="gini = 0.48\nsamples = 3\nvalue = [2, 3]"] ;
47 -> 48 ;
49 [label="gini = 0.0\nsamples = 9\nvalue = [0, 12]"] ;
47 -> 49 ;
50 [label="X[1] <= 10.5\ngini = 0.2542\nsamples = 279595\nvalue = [375878, 66028]"] ;
44 -> 50 ;
51 [label="X[1] <= 9.5\ngini = 0.2542\nsamples = 279560\nvalue = [375837, 66014]"] ;
50 -> 51 ;
52 [label="gini = 0.2542\nsamples = 279508\nvalue = [375769, 66003]"] ;
51 -> 52 ;
53 [label="gini = 0.2397\nsamples = 52\nvalue = [68, 11]"] ;
51 -> 53 ;
54 [label="gini = 0.3795\nsamples = 35\nvalue = [41, 14]"] ;
50 -> 54 ;
55 [label="X[2] <= 2.5\ngini = 0.1654\nsamples = 2329\nvalue = [3298, 330]"] ;
43 -> 55 ;
56 [label="gini = 0.2717\nsamples = 24\nvalue = [6, 31]"] ;
55 -> 56 ;
57 [label="gini = 0.1527\nsamples = 2305\nvalue = [3292, 299]"] ;
55 -> 57 ;
58 [label="X[0] <= 5.5\ngini = 0.2319\nsamples = 328266\nvalue = [449897, 69533]"] ;
16 -> 58 ;
59 [label="X[0] <= 1.5\ngini = 0.2319\nsamples = 328252\nvalue = [449890, 69517]"] ;
58 -> 59 ;
60 [label="gini = 0.0384\nsamples = 273\nvalue = [400, 8]"] ;
59 -> 60 ;
61 [label="X[0] <= 4.5\ngini = 0.232\nsamples = 327979\nvalue = [449490, 69509]"] ;
59 -> 61 ;
62 [label="X[0] <= 3.5\ngini = 0.232\nsamples = 327943\nvalue = [449441, 69498]"] ;
61 -> 62 ;
63 [label="X[1] <= 8.0\ngini = 0.232\nsamples = 327844\nvalue = [449294, 69484]"] ;
62 -> 63 ;
64 [label="X[1] <= 6.5\ngini = 0.3057\nsamples = 20482\nvalue = [26131, 6062]"] ;
63 -> 64 ;
65 [label="X[1] <= 0.5\ngini = 0.4626\nsamples = 329\nvalue = [340, 194]"] ;
64 -> 65 ;
66 [label="gini = 0.0\nsamples = 172\nvalue = [286, 0]"] ;
65 -> 66 ;
67 [label="X[1] <= 2.0\ngini = 0.3407\nsamples = 157\nvalue = [54, 194]"] ;
65 -> 67 ;
68 [label="gini = 0.0\nsamples = 14\nvalue = [0, 19]"] ;
67 -> 68 ;
69 [label="X[1] <= 3.5\ngini = 0.3604\nsamples = 143\nvalue = [54, 175]"] ;
67 -> 69 ;
70 [label="gini = 0.4753\nsamples = 12\nvalue = [7, 11]"] ;
69 -> 70 ;
71 [label="X[1] <= 5.0\ngini = 0.3463\nsamples = 131\nvalue = [47, 164]"] ;
69 -> 71 ;
72 [label="gini = 0.0\nsamples = 2\nvalue = [0, 2]"] ;
71 -> 72 ;
73 [label="gini = 0.3486\nsamples = 129\nvalue = [47, 162]"] ;
71 -> 73 ;
74 [label="gini = 0.302\nsamples = 20153\nvalue = [25791, 5868]"] ;
64 -> 74 ;
75 [label="gini = 0.2267\nsamples = 307362\nvalue = [423163, 63422]"] ;
63 -> 75 ;
76 [label="X[1] <= 5.5\ngini = 0.1588\nsamples = 99\nvalue = [147, 14]"] ;
62 -> 76 ;
77 [label="gini = 0.2257\nsamples = 66\nvalue = [94, 14]"] ;
76 -> 77 ;
78 [label="gini = 0.0\nsamples = 33\nvalue = [53, 0]"] ;
76 -> 78 ;
79 [label="X[1] <= 11.5\ngini = 0.2994\nsamples = 36\nvalue = [49, 11]"] ;
61 -> 79 ;
80 [label="gini = 0.2659\nsamples = 20\nvalue = [32, 6]"] ;
79 -> 80 ;
81 [label="gini = 0.3512\nsamples = 16\nvalue = [17, 5]"] ;
79 -> 81 ;
82 [label="gini = 0.4234\nsamples = 14\nvalue = [7, 16]"] ;
58 -> 82 ;
83 [label="X[2] <= 3.5\ngini = 0.2914\nsamples = 527596\nvalue = [687473, 147891]"] ;
1 -> 83 ;
84 [label="X[2] <= 1.5\ngini = 0.3276\nsamples = 253053\nvalue = [317945, 82679]"] ;
83 -> 84 ;
85 [label="X[0] <= 16.0\ngini = 0.4477\nsamples = 3263\nvalue = [3383, 1729]"] ;
84 -> 85 ;
86 [label="X[1] <= 8.5\ngini = 0.4618\nsamples = 2967\nvalue = [2963, 1680]"] ;
85 -> 86 ;
87 [label="gini = 0.0\nsamples = 20\nvalue = [0, 28]"] ;
86 -> 87 ;
88 [label="X[2] <= 0.5\ngini = 0.4597\nsamples = 2947\nvalue = [2963, 1652]"] ;
86 -> 88 ;
89 [label="X[0] <= 9.0\ngini = 0.3114\nsamples = 914\nvalue = [1138, 272]"] ;
88 -> 89 ;
90 [label="gini = 0.2911\nsamples = 221\nvalue = [284, 61]"] ;
89 -> 90 ;
91 [label="gini = 0.3177\nsamples = 693\nvalue = [854, 211]"] ;
89 -> 91 ;
92 [label="X[0] <= 10.0\ngini = 0.4904\nsamples = 2033\nvalue = [1825, 1380]"] ;
88 -> 92 ;
93 [label="X[0] <= 8.0\ngini = 0.4485\nsamples = 725\nvalue = [753, 387]"] ;
92 -> 93 ;
94 [label="gini = 0.4488\nsamples = 723\nvalue = [751, 387]"] ;
93 -> 94 ;
95 [label="gini = 0.0\nsamples = 2\nvalue = [2, 0]"] ;
93 -> 95 ;
96 [label="X[0] <= 13.0\ngini = 0.4993\nsamples = 1308\nvalue = [1072, 993]"] ;
92 -> 96 ;
97 [label="gini = 0.4991\nsamples = 1302\nvalue = [1072, 984]"] ;
96 -> 97 ;
98 [label="gini = 0.0\nsamples = 6\nvalue = [0, 9]"] ;
96 -> 98 ;
99 [label="X[2] <= 0.5\ngini = 0.1871\nsamples = 296\nvalue = [420, 49]"] ;
85 -> 99 ;
100 [label="gini = 0.0\nsamples = 11\nvalue = [0, 16]"] ;
99 -> 100 ;
101 [label="gini = 0.1351\nsamples = 285\nvalue = [420, 33]"] ;
99 -> 101 ;
102 [label="X[2] <= 2.5\ngini = 0.3256\nsamples = 249790\nvalue = [314562, 80950]"] ;
84 -> 102 ;
103 [label="X[0] <= 8.0\ngini = 0.3209\nsamples = 77822\nvalue = [98406, 24720]"] ;
102 -> 103 ;
104 [label="X[1] <= 8.5\ngini = 0.443\nsamples = 6825\nvalue = [7251, 3591]"] ;
103 -> 104 ;
105 [label="X[1] <= 7.5\ngini = 0.365\nsamples = 610\nvalue = [718, 227]"] ;
104 -> 105 ;
106 [label="X[1] <= 6.5\ngini = 0.4405\nsamples = 375\nvalue = [386, 188]"] ;
105 -> 106 ;
107 [label="gini = 0.4952\nsamples = 32\nvalue = [28, 23]"] ;
106 -> 107 ;
108 [label="gini = 0.4319\nsamples = 343\nvalue = [358, 165]"] ;
106 -> 108 ;
109 [label="gini = 0.1881\nsamples = 235\nvalue = [332, 39]"] ;
105 -> 109 ;
110 [label="gini = 0.4487\nsamples = 6215\nvalue = [6533, 3364]"] ;
104 -> 110 ;
111 [label="X[0] <= 11.5\ngini = 0.3055\nsamples = 70997\nvalue = [91155, 21129]"] ;
103 -> 111 ;
112 [label="X[0] <= 10.0\ngini = 0.301\nsamples = 69024\nvalue = [89016, 20143]"] ;
111 -> 112 ;
113 [label="gini = 0.0\nsamples = 18\nvalue = [24, 0]"] ;
112 -> 113 ;
114 [label="gini = 0.301\nsamples = 69006\nvalue = [88992, 20143]"] ;
112 -> 114 ;
115 [label="X[0] <= 18.5\ngini = 0.4319\nsamples = 1973\nvalue = [2139, 986]"] ;
111 -> 115 ;
116 [label="X[0] <= 14.5\ngini = 0.4427\nsamples = 1830\nvalue = [1947, 962]"] ;
115 -> 116 ;
117 [label="X[0] <= 13.5\ngini = 0.3343\nsamples = 20\nvalue = [7, 26]"] ;
116 -> 117 ;
118 [label="gini = 0.0\nsamples = 7\nvalue = [0, 10]"] ;
117 -> 118 ;
119 [label="X[1] <= 11.5\ngini = 0.4234\nsamples = 13\nvalue = [7, 16]"] ;
117 -> 119 ;
120 [label="gini = 0.0\nsamples = 10\nvalue = [0, 16]"] ;
119 -> 120 ;
121 [label="gini = 0.0\nsamples = 3\nvalue = [7, 0]"] ;
119 -> 121 ;
122 [label="X[1] <= 8.0\ngini = 0.4391\nsamples = 1810\nvalue = [1940, 936]"] ;
116 -> 122 ;
123 [label="gini = 0.4339\nsamples = 1236\nvalue = [1324, 618]"] ;
122 -> 123 ;
124 [label="X[0] <= 16.5\ngini = 0.4491\nsamples = 574\nvalue = [616, 318]"] ;
122 -> 124 ;
125 [label="gini = 0.4477\nsamples = 572\nvalue = [616, 315]"] ;
124 -> 125 ;
126 [label="gini = 0.0\nsamples = 2\nvalue = [0, 3]"] ;
124 -> 126 ;
127 [label="X[0] <= 20.5\ngini = 0.1975\nsamples = 143\nvalue = [192, 24]"] ;
115 -> 127 ;
128 [label="X[0] <= 19.5\ngini = 0.0495\nsamples = 127\nvalue = [192, 5]"] ;
127 -> 128 ;
129 [label="gini = 0.0\nsamples = 4\nvalue = [6, 0]"] ;
128 -> 129 ;
130 [label="gini = 0.051\nsamples = 123\nvalue = [186, 5]"] ;
128 -> 130 ;
131 [label="gini = 0.0\nsamples = 16\nvalue = [0, 19]"] ;
127 -> 131 ;
132 [label="X[1] <= 7.5\ngini = 0.3276\nsamples = 171968\nvalue = [216156, 56230]"] ;
102 -> 132 ;
133 [label="X[1] <= 6.5\ngini = 0.3951\nsamples = 6541\nvalue = [7575, 2815]"] ;
132 -> 133 ;
134 [label="X[0] <= 7.5\ngini = 0.1728\nsamples = 547\nvalue = [805, 85]"] ;
133 -> 134 ;
135 [label="X[1] <= 5.0\ngini = 0.1016\nsamples = 258\nvalue = [388, 22]"] ;
134 -> 135 ;
136 [label="gini = 0.0\nsamples = 6\nvalue = [0, 9]"] ;
135 -> 136 ;
137 [label="gini = 0.0627\nsamples = 252\nvalue = [388, 13]"] ;
135 -> 137 ;
138 [label="X[1] <= 3.5\ngini = 0.228\nsamples = 289\nvalue = [417, 63]"] ;
134 -> 138 ;
139 [label="gini = 0.0\nsamples = 5\nvalue = [0, 9]"] ;
138 -> 139 ;
140 [label="gini = 0.203\nsamples = 284\nvalue = [417, 54]"] ;
138 -> 140 ;
141 [label="X[0] <= 11.0\ngini = 0.4096\nsamples = 5994\nvalue = [6770, 2730]"] ;
133 -> 141 ;
142 [label="gini = 0.3857\nsamples = 836\nvalue = [977, 345]"] ;
141 -> 142 ;
143 [label="X[0] <= 16.0\ngini = 0.4132\nsamples = 5158\nvalue = [5793, 2385]"] ;
141 -> 143 ;
144 [label="gini = 0.0\nsamples = 6\nvalue = [0, 9]"] ;
143 -> 144 ;
145 [label="gini = 0.4125\nsamples = 5152\nvalue = [5793, 2376]"] ;
143 -> 145 ;
146 [label="X[0] <= 13.5\ngini = 0.3246\nsamples = 165427\nvalue = [208581, 53415]"] ;
132 -> 146 ;
147 [label="X[0] <= 10.0\ngini = 0.3309\nsamples = 158795\nvalue = [198935, 52625]"] ;
146 -> 147 ;
148 [label="X[0] <= 8.0\ngini = 0.3668\nsamples = 34698\nvalue = [41642, 13291]"] ;
147 -> 148 ;
149 [label="X[1] <= 8.5\ngini = 0.3668\nsamples = 34635\nvalue = [41565, 13263]"] ;
148 -> 149 ;
150 [label="gini = 0.1509\nsamples = 3232\nvalue = [4713, 422]"] ;
149 -> 150 ;
151 [label="gini = 0.3833\nsamples = 31403\nvalue = [36852, 12841]"] ;
149 -> 151 ;
152 [label="gini = 0.3911\nsamples = 63\nvalue = [77, 28]"] ;
148 -> 152 ;
153 [label="X[0] <= 11.5\ngini = 0.3201\nsamples = 124097\nvalue = [157293, 39334]"] ;
147 -> 153 ;
154 [label="gini = 0.3196\nsamples = 124031\nvalue = [157293, 39235]"] ;
153 -> 154 ;
155 [label="gini = 0.0\nsamples = 66\nvalue = [0, 99]"] ;
153 -> 155 ;
156 [label="X[0] <= 17.0\ngini = 0.1399\nsamples = 6632\nvalue = [9646, 790]"] ;
146 -> 156 ;
157 [label="X[1] <= 11.5\ngini = 0.1299\nsamples = 6395\nvalue = [9368, 703]"] ;
156 -> 157 ;
158 [label="X[0] <= 15.5\ngini = 0.1307\nsamples = 6256\nvalue = [9167, 693]"] ;
157 -> 158 ;
159 [label="X[0] <= 14.5\ngini = 0.1324\nsamples = 6171\nvalue = [9033, 693]"] ;
158 -> 159 ;
160 [label="gini = 0.1388\nsamples = 157\nvalue = [222, 18]"] ;
159 -> 160 ;
161 [label="gini = 0.1322\nsamples = 6014\nvalue = [8811, 675]"] ;
159 -> 161 ;
162 [label="gini = 0.0\nsamples = 85\nvalue = [134, 0]"] ;
158 -> 162 ;
163 [label="gini = 0.0903\nsamples = 139\nvalue = [201, 10]"] ;
157 -> 163 ;
164 [label="X[0] <= 19.5\ngini = 0.3631\nsamples = 237\nvalue = [278, 87]"] ;
156 -> 164 ;
165 [label="gini = 0.0\nsamples = 2\nvalue = [0, 2]"] ;
164 -> 165 ;
166 [label="gini = 0.3587\nsamples = 235\nvalue = [278, 85]"] ;
164 -> 166 ;
167 [label="X[1] <= 8.5\ngini = 0.255\nsamples = 274543\nvalue = [369528, 65212]"] ;
83 -> 167 ;
168 [label="X[0] <= 11.0\ngini = 0.3587\nsamples = 8832\nvalue = [10780, 3297]"] ;
167 -> 168 ;
169 [label="X[1] <= 6.5\ngini = 0.2714\nsamples = 2535\nvalue = [3427, 662]"] ;
168 -> 169 ;
170 [label="X[1] <= 5.5\ngini = 0.4251\nsamples = 80\nvalue = [38, 86]"] ;
169 -> 170 ;
171 [label="gini = 0.0\nsamples = 28\nvalue = [0, 41]"] ;
170 -> 171 ;
172 [label="gini = 0.4964\nsamples = 52\nvalue = [38, 45]"] ;
170 -> 172 ;
173 [label="X[1] <= 7.5\ngini = 0.2483\nsamples = 2455\nvalue = [3389, 576]"] ;
169 -> 173 ;
174 [label="gini = 0.2315\nsamples = 2413\nvalue = [3372, 520]"] ;
173 -> 174 ;
175 [label="gini = 0.3573\nsamples = 42\nvalue = [17, 56]"] ;
173 -> 175 ;
176 [label="X[0] <= 16.0\ngini = 0.3884\nsamples = 6297\nvalue = [7353, 2635]"] ;
168 -> 176 ;
177 [label="gini = 0.0\nsamples = 5\nvalue = [0, 8]"] ;
176 -> 177 ;
178 [label="gini = 0.3879\nsamples = 6292\nvalue = [7353, 2627]"] ;
176 -> 178 ;
179 [label="X[0] <= 8.0\ngini = 0.251\nsamples = 265711\nvalue = [358748, 61915]"] ;
167 -> 179 ;
180 [label="gini = 0.2984\nsamples = 25257\nvalue = [32761, 7316]"] ;
179 -> 180 ;
181 [label="X[0] <= 20.5\ngini = 0.2458\nsamples = 240454\nvalue = [325987, 54599]"] ;
179 -> 181 ;
182 [label="X[0] <= 15.5\ngini = 0.2461\nsamples = 240013\nvalue = [325282, 54597]"] ;
181 -> 182 ;
183 [label="X[1] <= 11.5\ngini = 0.2461\nsamples = 240006\nvalue = [325282, 54585]"] ;
182 -> 183 ;
184 [label="X[1] <= 9.5\ngini = 0.246\nsamples = 239707\nvalue = [324910, 54485]"] ;
183 -> 184 ;
185 [label="X[0] <= 11.5\ngini = 0.246\nsamples = 239562\nvalue = [324696, 54470]"] ;
184 -> 185 ;
186 [label="gini = 0.2461\nsamples = 238137\nvalue = [322734, 54161]"] ;
185 -> 186 ;
187 [label="X[0] <= 12.5\ngini = 0.2351\nsamples = 1425\nvalue = [1962, 309]"] ;
185 -> 187 ;
188 [label="gini = 0.0\nsamples = 94\nvalue = [148, 0]"] ;
187 -> 188 ;
189 [label="X[0] <= 14.0\ngini = 0.2487\nsamples = 1331\nvalue = [1814, 309]"] ;
187 -> 189 ;
190 [label="gini = 0.3896\nsamples = 56\nvalue = [61, 22]"] ;
189 -> 190 ;
191 [label="gini = 0.2418\nsamples = 1275\nvalue = [1753, 287]"] ;
189 -> 191 ;
192 [label="X[1] <= 10.5\ngini = 0.1224\nsamples = 145\nvalue = [214, 15]"] ;
184 -> 192 ;
193 [label="gini = 0.1841\nsamples = 27\nvalue = [35, 4]"] ;
192 -> 193 ;
194 [label="gini = 0.1091\nsamples = 118\nvalue = [179, 11]"] ;
192 -> 194 ;
195 [label="gini = 0.334\nsamples = 299\nvalue = [372, 100]"] ;
183 -> 195 ;
196 [label="gini = 0.0\nsamples = 7\nvalue = [0, 12]"] ;
182 -> 196 ;
197 [label="gini = 0.0056\nsamples = 441\nvalue = [705, 2]"] ;
181 -> 197 ;
198 [label="X[2] <= 5.5\ngini = 0.3575\nsamples = 73720\nvalue = [89684, 27261]"] ;
0 -> 198 [labeldistance=2.5, labelangle=-45, headlabel="False"] ;
199 [label="X[1] <= 8.0\ngini = 0.3552\nsamples = 46459\nvalue = [56644, 17005]"] ;
198 -> 199 ;
200 [label="X[1] <= 5.0\ngini = 0.2137\nsamples = 4602\nvalue = [6490, 899]"] ;
199 -> 200 ;
201 [label="X[0] <= 3.5\ngini = 0.4734\nsamples = 10\nvalue = [5, 8]"] ;
200 -> 201 ;
202 [label="gini = 0.0\nsamples = 3\nvalue = [0, 4]"] ;
201 -> 202 ;
203 [label="X[0] <= 5.5\ngini = 0.4938\nsamples = 7\nvalue = [5, 4]"] ;
201 -> 203 ;
204 [label="gini = 0.0\nsamples = 5\nvalue = [5, 0]"] ;
203 -> 204 ;
205 [label="gini = 0.0\nsamples = 2\nvalue = [0, 4]"] ;
203 -> 205 ;
206 [label="X[1] <= 6.5\ngini = 0.2124\nsamples = 4592\nvalue = [6485, 891]"] ;
200 -> 206 ;
207 [label="X[0] <= 5.0\ngini = 0.0768\nsamples = 14\nvalue = [24, 1]"] ;
206 -> 207 ;
208 [label="gini = 0.0\nsamples = 13\nvalue = [24, 0]"] ;
207 -> 208 ;
209 [label="gini = 0.0\nsamples = 1\nvalue = [0, 1]"] ;
207 -> 209 ;
210 [label="X[0] <= 5.0\ngini = 0.2128\nsamples = 4578\nvalue = [6461, 890]"] ;
206 -> 210 ;
211 [label="gini = 0.2209\nsamples = 3143\nvalue = [4402, 637]"] ;
210 -> 211 ;
212 [label="X[0] <= 12.0\ngini = 0.1949\nsamples = 1435\nvalue = [2059, 253]"] ;
210 -> 212 ;
213 [label="gini = 0.1384\nsamples = 227\nvalue = [334, 27]"] ;
212 -> 213 ;
214 [label="gini = 0.2048\nsamples = 1208\nvalue = [1725, 226]"] ;
212 -> 214 ;
215 [label="X[0] <= 14.5\ngini = 0.368\nsamples = 41857\nvalue = [50154, 16106]"] ;
199 -> 215 ;
216 [label="X[1] <= 11.5\ngini = 0.3706\nsamples = 41258\nvalue = [49278, 16050]"] ;
215 -> 216 ;
217 [label="X[1] <= 9.5\ngini = 0.3706\nsamples = 41246\nvalue = [49266, 16040]"] ;
216 -> 217 ;
218 [label="X[0] <= 5.0\ngini = 0.3706\nsamples = 41232\nvalue = [49244, 16039]"] ;
217 -> 218 ;
219 [label="gini = 0.3581\nsamples = 29396\nvalue = [35746, 10896]"] ;
218 -> 219 ;
220 [label="X[0] <= 9.0\ngini = 0.3996\nsamples = 11836\nvalue = [13498, 5143]"] ;
218 -> 220 ;
221 [label="gini = 0.4351\nsamples = 2116\nvalue = [2263, 1064]"] ;
220 -> 221 ;
222 [label="gini = 0.3908\nsamples = 9720\nvalue = [11235, 4079]"] ;
220 -> 222 ;
223 [label="X[1] <= 10.5\ngini = 0.0832\nsamples = 14\nvalue = [22, 1]"] ;
217 -> 223 ;
224 [label="gini = 0.0\nsamples = 3\nvalue = [5, 0]"] ;
223 -> 224 ;
225 [label="X[0] <= 9.5\ngini = 0.1049\nsamples = 11\nvalue = [17, 1]"] ;
223 -> 225 ;
226 [label="gini = 0.0\nsamples = 5\nvalue = [9, 0]"] ;
225 -> 226 ;
227 [label="gini = 0.1975\nsamples = 6\nvalue = [8, 1]"] ;
225 -> 227 ;
228 [label="gini = 0.4959\nsamples = 12\nvalue = [12, 10]"] ;
216 -> 228 ;
229 [label="X[0] <= 16.5\ngini = 0.113\nsamples = 599\nvalue = [876, 56]"] ;
215 -> 229 ;
230 [label="gini = 0.0985\nsamples = 596\nvalue = [876, 48]"] ;
229 -> 230 ;
231 [label="gini = 0.0\nsamples = 3\nvalue = [0, 8]"] ;
229 -> 231 ;
232 [label="X[1] <= 6.5\ngini = 0.3615\nsamples = 27261\nvalue = [33040, 10256]"] ;
198 -> 232 ;
233 [label="X[0] <= 3.5\ngini = 0.0512\nsamples = 43\nvalue = [2, 74]"] ;
232 -> 233 ;
234 [label="gini = 0.0\nsamples = 39\nvalue = [0, 68]"] ;
233 -> 234 ;
235 [label="X[1] <= 3.5\ngini = 0.375\nsamples = 4\nvalue = [2, 6]"] ;
233 -> 235 ;
236 [label="gini = 0.0\nsamples = 1\nvalue = [2, 0]"] ;
235 -> 236 ;
237 [label="gini = 0.0\nsamples = 3\nvalue = [0, 6]"] ;
235 -> 237 ;
238 [label="X[0] <= 14.5\ngini = 0.3602\nsamples = 27218\nvalue = [33038, 10182]"] ;
232 -> 238 ;
239 [label="X[0] <= 4.5\ngini = 0.3538\nsamples = 26718\nvalue = [32688, 9743]"] ;
238 -> 239 ;
240 [label="X[1] <= 8.0\ngini = 0.3443\nsamples = 18829\nvalue = [23234, 6590]"] ;
239 -> 240 ;
241 [label="gini = 0.4247\nsamples = 665\nvalue = [717, 316]"] ;
240 -> 241 ;
242 [label="gini = 0.3409\nsamples = 18164\nvalue = [22517, 6274]"] ;
240 -> 242 ;
243 [label="X[1] <= 7.5\ngini = 0.3751\nsamples = 7889\nvalue = [9454, 3153]"] ;
239 -> 243 ;
244 [label="gini = 0.1008\nsamples = 440\nvalue = [676, 38]"] ;
243 -> 244 ;
245 [label="X[1] <= 8.5\ngini = 0.3866\nsamples = 7449\nvalue = [8778, 3115]"] ;
243 -> 245 ;
246 [label="gini = 0.0\nsamples = 15\nvalue = [0, 18]"] ;
245 -> 246 ;
247 [label="X[0] <= 8.0\ngini = 0.3856\nsamples = 7434\nvalue = [8778, 3097]"] ;
245 -> 247 ;
248 [label="gini = 0.4479\nsamples = 1157\nvalue = [1221, 625]"] ;
247 -> 248 ;
249 [label="X[0] <= 12.5\ngini = 0.3715\nsamples = 6277\nvalue = [7557, 2472]"] ;
247 -> 249 ;
250 [label="X[1] <= 9.5\ngini = 0.3722\nsamples = 6243\nvalue = [7510, 2466]"] ;
249 -> 250 ;
251 [label="gini = 0.3723\nsamples = 6241\nvalue = [7507, 2466]"] ;
250 -> 251 ;
252 [label="gini = 0.0\nsamples = 2\nvalue = [3, 0]"] ;
250 -> 252 ;
253 [label="X[1] <= 11.5\ngini = 0.2008\nsamples = 34\nvalue = [47, 6]"] ;
249 -> 253 ;
254 [label="gini = 0.0\nsamples = 5\nvalue = [5, 0]"] ;
253 -> 254 ;
255 [label="gini = 0.2188\nsamples = 29\nvalue = [42, 6]"] ;
253 -> 255 ;
256 [label="X[1] <= 8.0\ngini = 0.4936\nsamples = 500\nvalue = [350, 439]"] ;
238 -> 256 ;
257 [label="gini = 0.481\nsamples = 288\nvalue = [270, 182]"] ;
256 -> 257 ;
258 [label="gini = 0.3621\nsamples = 212\nvalue = [80, 257]"] ;
256 -> 258 ;
}